digraph Tree {
node [shape=box, style="filled, rounded", color="black", fontname=helvetica] ;
edge [fontname=helvetica] ;
0 [label=<size &le; 3.5<br/>gini = 0.48<br/>samples = 15<br/>value = [9, 6]<br/>class = eggs>, fillcolor="#e5813955"] ;
1 [label=<flying &le; 0.5<br/>gini = 0.2188<br/>samples = 8<br/>value = [7, 1]<br/>class = eggs>, fillcolor="#e58139db"] ;
0 -> 1 [labeldistance=2.5, labelangle=45, headlabel="True"] ;
2 [label=<gini = 0.0<br/>samples = 6<br/>value = [6, 0]<br/>class = eggs>, fillcolor="#e58139ff"] ;
1 -> 2 ;
3 [label=<size &le; 1.5<br/>gini = 0.5<br/>samples = 2<br/>value = [1, 1]<br/>class = eggs>, fillcolor="#e5813900"] ;
1 -> 3 ;
4 [label=<gini = 0.0<br/>samples = 1<br/>value = [1, 0]<br/>class = eggs>, fillcolor="#e58139ff"] ;
3 -> 4 ;
5 [label=<gini = 0.0<br/>samples = 1<br/>value = [0, 1]<br/>class = live_birth>, fillcolor="#399de5ff"] ;
3 -> 5 ;
6 [label=<flying &le; 0.5<br/>gini = 0.4082<br/>samples = 7<br/>value = [2, 5]<br/>class = live_birth>, fillcolor="#399de599"] ;
0 -> 6 [labeldistance=2.5, labelangle=-45, headlabel="False"] ;
7 [label=<legs &le; 1.0<br/>gini = 0.2778<br/>samples = 6<br/>value = [1, 5]<br/>class = live_birth>, fillcolor="#399de5cc"] ;
6 -> 7 ;
8 [label=<size &le; 4.5<br/>gini = 0.5<br/>samples = 2<br/>value = [1, 1]<br/>class = eggs>, fillcolor="#e5813900"] ;
7 -> 8 ;
9 [label=<gini = 0.0<br/>samples = 1<br/>value = [1, 0]<br/>class = eggs>, fillcolor="#e58139ff"] ;
8 -> 9 ;
10 [label=<gini = 0.0<br/>samples = 1<br/>value = [0, 1]<br/>class = live_birth>, fillcolor="#399de5ff"] ;
8 -> 10 ;
11 [label=<gini = 0.0<br/>samples = 4<br/>value = [0, 4]<br/>class = live_birth>, fillcolor="#399de5ff"] ;
7 -> 11 ;
12 [label=<gini = 0.0<br/>samples = 1<br/>value = [1, 0]<br/>class = eggs>, fillcolor="#e58139ff"] ;
6 -> 12 ;
}